{"learner":{"attributes":{"scikit_learn":"{\"_estimator_type\": \"classifier\"}"},"feature_names":[],"feature_types":[],"gradient_booster":{"model":{"cats":{"enc":[],"feature_segments":[],"sorted_idx":[]},"gbtree_model_param":{"num_parallel_tree":"1","num_trees":"50"},"iteration_indptr":[0,1,2,3,4,5,6,7,8,9,10,11,12,13,14,15,16,17,18,19,20,21,22,23,24,25,26,27,28,29,30,31,32,33,34,35,36,37,38,39,40,41,42,43,44,45,46,47,48,49,50],"tree_info":[0,0,0,0,0,0,0,0,0,0,0,0,0,0,0,0,0,0,0,0,0,0,0,0,0,0,0,0,0,0,0,0,0,0,0,0,0,0,0,0,0,0,0,0,0,0,0,0,0,0],"trees":[{"base_weights":[-0E0,-6.440678E-1,5.3521127E-1,8.888889E-2,-8.888889E-1,8.8E-1,-2.4E-1,8.421052E-3,-1.02564104E-1,9.6E-2,-2.2857143E-2,-8.888889E-2,1.6E-2],"categories":[],"categories_nodes":[],"categories_segments":[],"categories_sizes":[],"default_left":[0,0,0,0,0,1,0,0,0,0,0,0,0],"id":0,"left_children":[1,3,5,-1,7,9,11,-1,-1,-1,-1,-1,-1],"loss_changes":[1.1203152E1,7.3258004E0,4.955493E0,0E0,5.411605E0,5.0057135E0,2.6177778E0,0E0,0E0,0E0,0E0,0E0,0E0],"parents":[2147483647,0,0,1,1,2,2,4,4,5,5,6,6],"right_children":[2,4,6,-1,8,10,12,-1,-1,-1,-1,-1,-1],"split_conditions":[1.44E0,2.2E1,6.6E1,8.888889E-2,3.08E1,7.26E1,5.5E1,8.421052E-3,-1.02564104E-1,9.6E-2,-2.2857143E-2,-8.888889E-2,1.6E-2],"split_indices":[3,2,2,0,0,0,1,0,0,0,0,0,0],"split_type":[0,0,0,0,0,0,0,0,0,0,0,0,0],"sum_hessian":[3.05E1,1.375E1,1.675E1,1.25E0,1.25E1,1.15E1,5.25E0,3.75E0,8.75E0,9E0,2.5E0,1.25E0,4E0],"tree_param":{"num_deleted":"0","num_feature":"5","num_nodes":"13","size_leaf_vector":"1"}},{"base_weights":[-1.6297647E-4,-5.939739E-1,4.931016E-1,8.5034065E-2,-8.2621944E-1,6.648091E-1,-6.559623E-2,7.889314E-3,-9.543181E-2,9.04508E-2,8.603654E-3],"categories":[],"categories_nodes":[],"categories_segments":[],"categories_sizes":[],"default_left":[0,0,1,0,0,0,0,0,0,0,0],"id":1,"left_children":[1,3,5,-1,7,9,-1,-1,-1,-1,-1],"loss_changes":[9.504997E0,6.5443077E0,4.5416946E0,0E0,4.687909E0,4.0911303E0,0E0,0E0,0E0,0E0,0E0],"parents":[2147483647,0,0,1,1,2,2,4,4,5,5],"right_children":[2,4,6,-1,8,10,-1,-1,-1,-1,-1],"split_conditions":[1.44E0,2.2E1,2.41E0,8.5034065E-2,3.08E1,5.1E1,-6.559623E-2,7.889314E-3,-9.543181E-2,9.04508E-2,8.603654E-3],"split_indices":[3,2,3,0,0,2,0,0,0,0,0],"split_type":[0,0,0,0,0,0,0,0,0,0,0],"sum_hessian":[3.0450743E1,1.3724497E1,1.6726248E1,1.247534E0,1.2476962E1,1.5228515E1,1.4977328E0,3.7499337E0,8.727029E0,7.734341E0,7.494173E0],"tree_param":{"num_deleted":"0","num_feature":"5","num_nodes":"11","size_leaf_vector":"1"}},{"base_weights":[8.170649E-4,-5.4937655E-1,4.567835E-1,8.1519164E-2,-7.703825E-1,6.1952776E-1,-6.244983E-2,7.391337E-3,-8.917451E-2,8.448294E-2,7.996901E-3],"categories":[],"categories_nodes":[],"categories_segments":[],"categories_sizes":[],"default_left":[0,0,1,0,0,0,0,0,0,0,0],"id":2,"left_children":[1,3,5,-1,7,9,-1,-1,-1,-1,-1],"loss_changes":[8.112465E0,5.864754E0,4.0444117E0,0E0,4.0878077E0,3.5649395E0,0E0,0E0,0E0,0E0,0E0],"parents":[2147483647,0,0,1,1,2,2,4,4,5,5],"right_children":[2,4,6,-1,8,10,-1,-1,-1,-1,-1],"split_conditions":[1.44E0,2.2E1,2.41E0,8.1519164E-2,3.08E1,5.1E1,-6.244983E-2,7.391337E-3,-8.917451E-2,8.448294E-2,7.996901E-3],"split_indices":[3,2,3,0,0,2,0,0,0,0,0],"split_type":[0,0,0,0,0,0,0,0,0,0,0],"sum_hessian":[3.0337042E1,1.3655147E1,1.6681894E1,1.2405945E0,1.2414552E1,1.5184196E1,1.4976989E0,3.7497506E0,8.664802E0,7.6905327E0,7.4936633E0],"tree_param":{"num_deleted":"0","num_feature":"5","num_nodes":"11","size_leaf_vector":"1"}},{"base_weights":[1.6842249E-3,2.5840136E-1,-8.53393E-1,6.9831085E-1,-4.398881E-1,-1.1519524E0,-2.1278758E-3,6.4740116E-3,9.45999E-2,-6.74612E-2,1.6503172E-2,-1.0732145E-1,-3.771372E-2],"categories":[],"categories_nodes":[],"categories_segments":[],"categories_sizes":[],"default_left":[1,0,0,0,0,0,0,0,0,0,0,0,0],"id":3,"left_children":[1,3,5,7,9,11,-1,-1,-1,-1,-1,-1,-1],"loss_changes":[7.060731E0,7.904853E0,1.8028345E0,4.555801E0,2.825541E0,6.851435E-2,0E0,0E0,0E0,0E0,0E0,0E0,0E0],"parents":[2147483647,0,0,1,1,2,2,3,3,4,4,5,5],"right_children":[2,4,6,8,10,12,-1,-1,-1,-1,-1,-1,-1],"split_conditions":[6.99E1,6.6E1,1.69E0,2.542906E4,7E1,6.1E1,-2.1278758E-3,6.4740116E-3,9.45999E-2,-6.74612E-2,1.6503172E-2,-1.0732145E-1,-3.771372E-2],"split_indices":[0,2,3,4,1,1,0,0,0,0,0,0,0],"split_type":[0,0,0,0,0,0,0,0,0,0,0,0,0],"sum_hessian":[3.0160856E1,2.373329E1,6.427567E0,1.4560447E1,9.172843E0,4.433378E0,1.9941888E0,6.9129343E0,7.6475124E0,5.459648E0,3.7131944E0,2.707818E0,1.7255603E0],"tree_param":{"num_deleted":"0","num_feature":"5","num_nodes":"13","size_leaf_vector":"1"}},{"base_weights":[-1.5488722E-3,6.27037E-1,-3.2568553E-1,-3.0302486E-1,9.392922E-1,3.0250762E-2,-1.1951519E0,-5.6177054E-2,1.8411968E-2,1.06882036E-1,1.2380966E-4,-4.908586E-2,3.1511154E-2,-1.0493853E-2,-1.1473949E-1],"categories":[],"categories_nodes":[],"categories_segments":[],"categories_sizes":[],"default_left":[1,0,0,0,0,0,0,0,0,0,0,0,0,0,0],"id":4,"left_children":[1,3,5,7,9,11,13,-1,-1,-1,-1,-1,-1,-1,-1],"loss_changes":[6.52528E0,3.4492602E0,6.574456E0,9.0547895E-1,3.1237178E0,3.9795675E0,1.3792458E0,0E0,0E0,0E0,0E0,0E0,0E0,0E0,0E0],"parents":[2147483647,0,0,1,1,2,2,3,3,4,4,5,5,6,6],"right_children":[2,4,6,8,10,12,14,-1,-1,-1,-1,-1,-1,-1,-1],"split_conditions":[3.53E1,7.3E-1,7.6E1,2.45E1,6.6E1,-1.592337E4,-2.510644E4,-5.6177054E-2,1.8411968E-2,1.06882036E-1,1.2380966E-4,-4.908586E-2,3.1511154E-2,-1.0493853E-2,-1.1473949E-1],"split_indices":[0,3,2,0,2,4,4,0,0,0,0,0,0,0,0],"split_type":[0,0,0,0,0,0,0,0,0,0,0,0,0,0,0],"sum_hessian":[3.0023968E1,9.896867E0,2.01271E1,2.494998E0,7.4018693E0,1.4965735E1,5.161364E0,1.2454708E0,1.2495273E0,4.902878E0,2.4989915E0,5.153725E0,9.812011E0,1.2311722E0,3.930192E0],"tree_param":{"num_deleted":"0","num_feature":"5","num_nodes":"15","size_leaf_vector":"1"}},{"base_weights":[-3.8208263E-3,-4.8751503E-1,3.966994E-1,7.657606E-2,-6.9353503E-1,5.521306E-1,-6.0822885E-2,-1.6021926E-2,-9.9391736E-2,6.058705E-2,-2.0168759E-2],"categories":[],"categories_nodes":[],"categories_segments":[],"categories_sizes":[],"default_left":[0,0,1,0,0,1,0,0,0,0,0],"id":5,"left_children":[1,3,5,-1,7,9,-1,-1,-1,-1,-1],"loss_changes":[6.1709776E0,4.957342E0,3.5542824E0,0E0,3.3260999E0,2.822473E0,0E0,0E0,0E0,0E0,0E0],"parents":[2147483647,0,0,1,1,2,2,4,4,5,5],"right_children":[2,4,6,-1,8,10,-1,-1,-1,-1,-1],"split_conditions":[1.44E0,2.2E1,2.41E0,7.657606E-2,5.43E1,7.26E1,-6.0822885E-2,-1.6021926E-2,-9.9391736E-2,6.058705E-2,-2.0168759E-2],"split_indices":[3,2,3,0,0,0,0,0,0,0,0],"split_type":[0,0,0,0,0,0,0,0,0,0,0],"sum_hessian":[2.9855324E1,1.3425098E1,1.6430225E1,1.2204602E0,1.22046385E1,1.4945244E1,1.484981E0,7.1467543E0,5.057884E0,1.1953533E1,2.9917104E0],"tree_param":{"num_deleted":"0","num_feature":"5","num_nodes":"11","size_leaf_vector":"1"}},{"base_weights":[-5.542169E-3,-3.3081827E-1,5.3239584E-1,-5.666602E-1,7.6093435E-1,-7.6439306E-2,7.9034805E-1,3.9562758E-2,-6.4212866E-2,9.4535895E-2,-7.699354E-3,-6.6050456E-4,9.366553E-2],"categories":[],"categories_nodes":[],"categories_segments":[],"categories_sizes":[],"default_left":[0,0,0,0,0,0,0,0,0,0,0,0,0],"id":6,"left_children":[1,3,5,7,9,-1,11,-1,-1,-1,-1,-1,-1],"loss_changes":[5.5364804E0,5.5054994E0,5.3327513E0,4.5992975E0,1.5303624E0,0E0,3.2644482E0,0E0,0E0,0E0,0E0,0E0,0E0],"parents":[2147483647,0,0,1,1,2,2,3,3,4,4,6,6],"right_children":[2,4,6,8,10,-1,12,-1,-1,-1,-1,-1,-1],"split_conditions":[7.1E1,8.108982E4,5.5E-1,2.35E1,5.45E1,-7.6439306E-2,-5.8666E3,3.9562758E-2,-6.4212866E-2,9.4535895E-2,-7.699354E-3,-6.6050456E-4,9.366553E-2],"split_indices":[1,4,3,0,0,0,4,0,0,0,0,0,0],"split_type":[0,0,0,0,0,0,0,0,0,0,0,0,0],"sum_hessian":[2.963438E1,1.8707502E1,1.0926878E1,1.577971E1,2.9277923E0,1.2149302E0,9.711948E0,2.6715233E0,1.3108186E1,1.7098695E0,1.2179227E0,3.4495928E0,6.2623553E0],"tree_param":{"num_deleted":"0","num_feature":"5","num_nodes":"13","size_leaf_vector":"1"}},{"base_weights":[-2.4774328E-3,-7.3898935E-1,2.1815623E-1,-3.4120387E-1,-8.852898E-2,8.9958124E-2,5.328939E-3,-7.4471466E-2,7.98967E-3,-2.3063315E-2,4.0478185E-2],"categories":[],"categories_nodes":[],"categories_segments":[],"categories_sizes":[],"default_left":[0,0,1,0,0,0,0,0,0,0,0],"id":7,"left_children":[1,3,5,7,-1,-1,9,-1,-1,-1,-1],"loss_changes":[5.108615E0,6.820419E-1,4.661871E0,1.3742121E0,0E0,0E0,3.174431E0,0E0,0E0,0E0,0E0],"parents":[2147483647,0,0,1,1,2,2,3,3,6,6],"right_children":[2,4,6,8,-1,-1,10,-1,-1,-1,-1],"split_conditions":[8.7E-1,5.46E1,2.35E1,4.8E-1,-8.852898E-2,8.9958124E-2,7.1E1,-7.4471466E-2,7.98967E-3,-2.3063315E-2,4.0478185E-2],"split_indices":[3,0,0,3,0,0,1,0,0,0,0],"split_type":[0,0,0,0,0,0,0,0,0,0,0],"sum_hessian":[2.9445663E1,6.246019E0,2.3199646E1,3.9260173E0,2.3200014E0,3.5972629E0,1.9602383E1,1.2047842E0,2.7212331E0,1.2623256E1,6.979126E0],"tree_param":{"num_deleted":"0","num_feature":"5","num_nodes":"11","size_leaf_vector":"1"}},{"base_weights":[-3.8658178E-3,-1.851584E-1,8.416626E-1,-5.1395476E-1,3.715448E-1,1.02703854E-1,-1.8787725E-2,3.386097E-2,-5.760871E-2,8.932294E-2,-1.2781809E-2],"categories":[],"categories_nodes":[],"categories_segments":[],"categories_sizes":[],"default_left":[0,0,1,0,0,0,0,0,0,0,0],"id":8,"left_children":[1,3,5,7,9,-1,-1,-1,-1,-1,-1],"loss_changes":[4.79499E0,4.9025636E0,2.9305708E0,3.5125594E0,4.191363E0,0E0,0E0,0E0,0E0,0E0,0E0],"parents":[2147483647,0,0,1,1,2,2,3,3,4,4],"right_children":[2,4,6,8,10,-1,-1,-1,-1,-1,-1],"split_conditions":[8.108982E4,7.1E1,6.3E1,2.35E1,8.1E1,1.02703854E-1,-1.8787725E-2,3.386097E-2,-5.760871E-2,8.932294E-2,-1.2781809E-2],"split_indices":[4,1,0,0,1,0,0,0,0,0,0],"split_type":[0,0,0,0,0,0,0,0,0,0,0],"sum_hessian":[2.9264267E1,2.4740572E1,4.5236945E0,1.5602384E1,9.138188E0,3.0701776E0,1.4535167E0,2.6232843E0,1.2979099E1,3.3456302E0,5.7925577E0],"tree_param":{"num_deleted":"0","num_feature":"5","num_nodes":"11","size_leaf_vector":"1"}},{"base_weights":[1.082102E-3,-4.220023E-1,3.482001E-1,7.160467E-2,-6.137966E-1,4.9363995E-1,-5.6823008E-2,-7.391494E-2,2.906775E-3,5.9389982E-2,-5.6277164E-3],"categories":[],"categories_nodes":[],"categories_segments":[],"categories_sizes":[],"default_left":[0,0,1,0,0,0,0,0,0,0,0],"id":9,"left_children":[1,3,5,-1,7,9,-1,-1,-1,-1,-1],"loss_changes":[4.558279E0,4.08322E0,2.9751146E0,0E0,2.615374E0,2.2376332E0,0E0,0E0,0E0,0E0,0E0],"parents":[2147483647,0,0,1,1,2,2,4,4,5,5],"right_children":[2,4,6,-1,8,10,-1,-1,-1,-1,-1],"split_conditions":[1.44E0,2.2E1,2.41E0,7.160467E-2,7.1E1,6.6E1,-5.6823008E-2,-7.391494E-2,2.906775E-3,5.9389982E-2,-5.6277164E-3],"split_indices":[3,2,3,0,1,2,0,0,0,0,0],"split_type":[0,0,0,0,0,0,0,0,0,0,0],"sum_hessian":[2.9037663E1,1.2989587E1,1.6048075E1,1.1850475E0,1.180454E1,1.4578567E1,1.4695086E0,7.706878E0,4.0976615E0,9.897274E0,4.6812925E0],"tree_param":{"num_deleted":"0","num_feature":"5","num_nodes":"11","size_leaf_vector":"1"}},{"base_weights":[8.9681824E-4,2.0943898E-1,-6.9314116E-1,5.6194794E-1,-3.3956367E-1,1.8383157E-2,-9.589301E-1,-2.9888617E-2,6.0281657E-2,-7.451926E-2,1.17426935E-5,-9.2980385E-2,-1.50625305E-2],"categories":[],"categories_nodes":[],"categories_segments":[],"categories_sizes":[],"default_left":[1,0,0,0,0,0,0,0,0,0,0,0,0],"id":10,"left_children":[1,3,5,7,9,-1,11,-1,-1,-1,-1,-1,-1],"loss_changes":[4.454662E0,4.7703276E0,1.9648478E0,2.9317703E0,1.9860694E0,0E0,6.766257E-1,0E0,0E0,0E0,0E0,0E0,0E0],"parents":[2147483647,0,0,1,1,2,2,3,3,4,4,6,6],"right_children":[2,4,6,8,10,-1,12,-1,-1,-1,-1,-1,-1],"split_conditions":[6.99E1,6.6E1,3.8E1,7E-1,5.6E1,1.8383157E-2,8.08E1,-2.9888617E-2,6.0281657E-2,-7.451926E-2,1.17426935E-5,-9.2980385E-2,-1.50625305E-2],"split_indices":[0,2,1,3,1,0,0,0,0,0,0,0,0],"split_type":[0,0,0,0,0,0,0,0,0,0,0,0,0],"sum_hessian":[2.87748E1,2.2663254E1,6.1115456E0,1.3787111E1,8.8761425E0,1.3967807E0,4.714765E0,2.181828E0,1.1605284E1,2.601374E0,6.274768E0,3.328449E0,1.386316E0],"tree_param":{"num_deleted":"0","num_feature":"5","num_nodes":"13","size_leaf_vector":"1"}},{"base_weights":[-3.6937646E-3,-1.727829E-1,7.9268545E-1,-4.7028273E-1,3.292614E-1,9.61573E-2,-1.5797343E-2,3.0824754E-2,-5.2689627E-2,8.308259E-2,-1.3215424E-2],"categories":[],"categories_nodes":[],"categories_segments":[],"categories_sizes":[],"default_left":[0,0,1,0,0,0,0,0,0,0,0],"id":11,"left_children":[1,3,5,7,9,-1,-1,-1,-1,-1,-1],"loss_changes":[4.116331E0,3.9182105E0,2.4072652E0,2.8696086E0,3.665824E0,0E0,0E0,0E0,0E0,0E0,0E0],"parents":[2147483647,0,0,1,1,2,2,3,3,4,4],"right_children":[2,4,6,8,10,-1,-1,-1,-1,-1,-1],"split_conditions":[8.108982E4,7.1E1,6.3E1,2.35E1,8.1E1,9.61573E-2,-1.5797343E-2,3.0824754E-2,-5.2689627E-2,8.308259E-2,-1.3215424E-2],"split_indices":[4,1,0,0,1,0,0,0,0,0,0],"split_type":[0,0,0,0,0,0,0,0,0,0,0],"sum_hessian":[2.8551434E1,2.4196924E1,4.3545094E0,1.5233293E1,8.963633E0,2.9296243E0,1.4248852E0,2.559588E0,1.2673705E1,3.229996E0,5.7336364E0],"tree_param":{"num_deleted":"0","num_feature":"5","num_nodes":"11","size_leaf_vector":"1"}},{"base_weights":[1.0872501E-3,-6.392213E-1,1.9231276E-1,-8.0747694E-1,-4.3684687E-3,7.8351855E-2,1.0781113E-2,1.880362E-3,-9.022459E-2,1.6236147E-2,-4.2912286E-2],"categories":[],"categories_nodes":[],"categories_segments":[],"categories_sizes":[],"default_left":[0,0,1,0,0,0,0,0,0,0,0],"id":12,"left_children":[1,3,5,7,-1,-1,9,-1,-1,-1,-1],"loss_changes":[3.7093444E0,6.412251E-1,3.3218944E0,1.447298E0,0E0,0E0,2.2080657E0,0E0,0E0,0E0,0E0],"parents":[2147483647,0,0,1,1,2,2,3,3,6,6],"right_children":[2,4,6,8,-1,-1,10,-1,-1,-1,-1],"split_conditions":[8.7E-1,2.825883E4,2.35E1,2.79E1,-4.3684687E-3,7.8351855E-2,7.6E1,1.880362E-3,-9.022459E-2,1.6236147E-2,-4.2912286E-2],"split_indices":[3,4,0,0,0,0,2,0,0,0,0],"split_type":[0,0,0,0,0,0,0,0,0,0,0],"sum_hessian":[2.8290396E1,5.9671035E0,2.2323292E1,4.3375278E0,1.6295756E0,3.3599632E0,1.896333E1,1.4646493E0,2.8728786E0,1.45000305E1,4.463299E0],"tree_param":{"num_deleted":"0","num_feature":"5","num_nodes":"11","size_leaf_vector":"1"}},{"base_weights":[-4.5130064E-4,1.8879884E-1,-6.2809795E-1,5.04655E-1,-2.9874584E-1,2.0284262E-2,-8.900534E-1,3.8817371E-3,7.031969E-2,-5.0430715E-2,1.6235422E-2,-8.7239884E-2,-1.2285292E-2],"categories":[],"categories_nodes":[],"categories_segments":[],"categories_sizes":[],"default_left":[1,0,0,0,0,0,0,0,0,0,0,0,0],"id":13,"left_children":[1,3,5,7,9,-1,11,-1,-1,-1,-1,-1,-1],"loss_changes":[3.5725718E0,3.7096636E0,1.8348851E0,2.4155564E0,1.7441503E0,0E0,6.582594E-1,0E0,0E0,0E0,0E0,0E0,0E0],"parents":[2147483647,0,0,1,1,2,2,3,3,4,4,6,6],"right_children":[2,4,6,8,10,-1,12,-1,-1,-1,-1,-1,-1],"split_conditions":[6.99E1,6.6E1,3.8E1,2.542906E4,7E1,2.0284262E-2,8.08E1,3.8817371E-3,7.031969E-2,-5.0430715E-2,1.6235422E-2,-8.7239884E-2,-1.2285292E-2],"split_indices":[0,2,1,4,1,0,0,0,0,0,0,0,0],"split_type":[0,0,0,0,0,0,0,0,0,0,0,0,0],"sum_hessian":[2.8078321E1,2.2110641E1,5.96768E0,1.3396569E1,8.714072E0,1.3743086E0,4.5933714E0,6.547763E0,6.8488064E0,5.0917068E0,3.622365E0,3.2328353E0,1.3605361E0],"tree_param":{"num_deleted":"0","num_feature":"5","num_nodes":"13","size_leaf_vector":"1"}},{"base_weights":[-1.7397505E-3,-1.5790036E-1,7.443661E-1,-4.334195E-1,3.0561507E-1,9.015704E-2,-1.3335213E-2,-1.6246444E-2,-9.560463E-2,-6.7526236E-2,4.4384096E-2],"categories":[],"categories_nodes":[],"categories_segments":[],"categories_sizes":[],"default_left":[0,0,1,0,0,0,0,0,0,0,0],"id":14,"left_children":[1,3,5,7,9,-1,-1,-1,-1,-1,-1],"loss_changes":[3.4769132E0,3.2826855E0,1.988297E0,2.5440524E0,3.270934E0,0E0,0E0,0E0,0E0,0E0,0E0],"parents":[2147483647,0,0,1,1,2,2,3,3,4,4],"right_children":[2,4,6,8,10,-1,-1,-1,-1,-1,-1],"split_conditions":[8.108982E4,7.1E1,6.3E1,6.567918E4,5.5E-1,9.015704E-2,-1.3335213E-2,-1.6246444E-2,-9.560463E-2,-6.7526236E-2,4.4384096E-2],"split_indices":[4,1,0,4,3,0,0,0,0,0,0],"split_type":[0,0,0,0,0,0,0,0,0,0,0],"sum_hessian":[2.7832802E1,2.3667534E1,4.1652684E0,1.4884774E1,8.78276E0,2.7664967E0,1.3987715E0,1.2401024E1,2.4837508E0,1.1392336E0,7.6435256E0],"tree_param":{"num_deleted":"0","num_feature":"5","num_nodes":"11","size_leaf_vector":"1"}},{"base_weights":[-3.6026228E-3,-1.517714E-1,7.1261334E-1,-4.079047E-1,2.8103116E-1,8.689608E-2,-1.2733078E-2,-1.5062734E-2,-9.177288E-2,7.64122E-2,-1.4132702E-2],"categories":[],"categories_nodes":[],"categories_segments":[],"categories_sizes":[],"default_left":[0,0,1,0,0,0,0,0,0,0,0],"id":15,"left_children":[1,3,5,7,9,-1,-1,-1,-1,-1,-1],"loss_changes":[3.1424663E0,2.8323731E0,1.8263397E0,2.3507593E0,3.1636314E0,0E0,0E0,0E0,0E0,0E0,0E0],"parents":[2147483647,0,0,1,1,2,2,3,3,4,4],"right_children":[2,4,6,8,10,-1,-1,-1,-1,-1,-1],"split_conditions":[8.108982E4,7.1E1,6.3E1,6.567918E4,8.1E1,8.689608E-2,-1.2733078E-2,-1.5062734E-2,-9.177288E-2,7.64122E-2,-1.4132702E-2],"split_indices":[4,1,0,4,1,0,0,0,0,0,0],"split_type":[0,0,0,0,0,0,0,0,0,0,0],"sum_hessian":[2.7592987E1,2.3516129E1,4.0768585E0,1.4809417E1,8.706712E0,2.6816945E0,1.3951643E0,1.2384796E1,2.42462E0,3.0813544E0,5.6253576E0],"tree_param":{"num_deleted":"0","num_feature":"5","num_nodes":"11","size_leaf_vector":"1"}},{"base_weights":[-2.1793894E-3,-3.5741788E-1,2.8849027E-1,6.617418E-2,-5.353498E-1,4.287183E-1,-5.500431E-2,-1.1812265E-2,-7.947033E-2,5.7340913E-2,8.458843E-3],"categories":[],"categories_nodes":[],"categories_segments":[],"categories_sizes":[],"default_left":[0,0,1,0,0,0,0,0,0,0,0],"id":16,"left_children":[1,3,5,-1,7,9,-1,-1,-1,-1,-1],"loss_changes":[3.0308115E0,3.2263966E0,2.504829E0,0E0,1.9999921E0,1.2950339E0,0E0,0E0,0E0,0E0,0E0],"parents":[2147483647,0,0,1,1,2,2,4,4,5,5],"right_children":[2,4,6,-1,8,10,-1,-1,-1,-1,-1],"split_conditions":[1.44E0,2.2E1,2.41E0,6.617418E-2,5.43E1,5.1E1,-5.500431E-2,-1.1812265E-2,-7.947033E-2,5.7340913E-2,8.458843E-3],"split_indices":[3,2,3,0,0,2,0,0,0,0,0],"split_type":[0,0,0,0,0,0,0,0,0,0,0],"sum_hessian":[2.7353512E1,1.2206205E1,1.5147306E1,1.1175029E0,1.1088702E1,1.3734791E1,1.4125152E0,6.7216034E0,4.367099E0,6.6156316E0,7.1191597E0],"tree_param":{"num_deleted":"0","num_feature":"5","num_nodes":"11","size_leaf_vector":"1"}},{"base_weights":[-2.596592E-3,-1.4462371E-1,6.929392E-1,-3.8743708E-1,2.6643106E-1,8.356546E-2,-1.0245456E-2,-1.4433884E-2,-8.76381E-2,-2.1573784E-2,6.3002735E-2],"categories":[],"categories_nodes":[],"categories_segments":[],"categories_sizes":[],"default_left":[0,0,1,0,0,0,0,0,0,0,0],"id":17,"left_children":[1,3,5,7,9,-1,-1,-1,-1,-1,-1],"loss_changes":[2.8720527E0,2.5114872E0,1.5572324E0,2.085369E0,2.8810544E0,0E0,0E0,0E0,0E0,0E0,0E0],"parents":[2147483647,0,0,1,1,2,2,3,3,4,4],"right_children":[2,4,6,8,10,-1,-1,-1,-1,-1,-1],"split_conditions":[8.108982E4,7.1E1,6.3E1,6.567918E4,-2.8601E2,8.356546E-2,-1.0245456E-2,-1.4433884E-2,-8.76381E-2,-2.1573784E-2,6.3002735E-2],"split_indices":[4,1,0,4,4,0,0,0,0,0,0],"split_type":[0,0,0,0,0,0,0,0,0,0,0],"sum_hessian":[2.7059305E1,2.3128565E1,3.930741E0,1.45759115E1,8.552652E0,2.5614133E0,1.3693279E0,1.2249327E1,2.3265855E0,4.453477E0,4.099175E0],"tree_param":{"num_deleted":"0","num_feature":"5","num_nodes":"11","size_leaf_vector":"1"}},{"base_weights":[-1.8609087E-3,1.6540733E-1,-5.54612E-1,-5.9972536E-2,2.9175788E-1,2.2563187E-2,-8.1815827E-1,-2.4213351E-4,5.7656124E-2,-8.178749E-2,-7.428964E-3],"categories":[],"categories_nodes":[],"categories_segments":[],"categories_sizes":[],"default_left":[1,0,0,0,0,0,0,0,0,0,0],"id":18,"left_children":[1,3,5,-1,7,-1,9,-1,-1,-1,-1],"loss_changes":[2.6640673E0,2.7772126E0,1.706538E0,0E0,2.5518074E0,0E0,6.967914E-1,0E0,0E0,0E0,0E0],"parents":[2147483647,0,0,1,1,2,2,4,4,6,6],"right_children":[2,4,6,-1,8,-1,10,-1,-1,-1,-1],"split_conditions":[6.99E1,5.1E-1,3.8E1,-5.9972536E-2,7.1E1,2.2563187E-2,8.08E1,-2.4213351E-4,5.7656124E-2,-8.178749E-2,-7.428964E-3],"split_indices":[0,3,1,0,1,0,0,0,0,0,0],"split_type":[0,0,0,0,0,0,0,0,0,0,0],"sum_hessian":[2.6821705E1,2.1128696E1,5.693008E0,1.9649394E0,1.9163757E1,1.3469188E0,4.346089E0,1.1946597E1,7.21716E0,3.071771E0,1.2743181E0],"tree_param":{"num_deleted":"0","num_feature":"5","num_nodes":"11","size_leaf_vector":"1"}},{"base_weights":[-4.2448947E-3,-1.3877119E-1,6.648343E-1,6.029562E-1,-2.6007816E-1,8.02565E-2,-8.989944E-3,9.976318E-3,6.669051E-2,-3.7061613E-2,7.8039E-3],"categories":[],"categories_nodes":[],"categories_segments":[],"categories_sizes":[],"default_left":[0,0,1,0,0,0,0,0,0,0,0],"id":19,"left_children":[1,3,5,7,9,-1,-1,-1,-1,-1,-1],"loss_changes":[2.5778368E0,2.3000004E0,1.373883E0,2.9864442E-1,1.583548E0,0E0,0E0,0E0,0E0,0E0,0E0],"parents":[2147483647,0,0,1,1,2,2,3,3,4,4],"right_children":[2,4,6,8,10,-1,-1,-1,-1,-1,-1],"split_conditions":[8.108982E4,2.19E1,6.3E1,1.76E1,7.1E1,8.02565E-2,-8.989944E-3,9.976318E-3,6.669051E-2,-3.7061613E-2,7.8039E-3],"split_indices":[4,0,0,0,1,0,0,0,0,0,0],"split_type":[0,0,0,0,0,0,0,0,0,0,0],"sum_hessian":[2.6614836E1,2.2819332E1,3.7955031E0,2.649367E0,2.0169966E1,2.4416885E0,1.3538148E0,1.3633592E0,1.2860079E0,1.2673751E1,7.4962144E0],"tree_param":{"num_deleted":"0","num_feature":"5","num_nodes":"11","size_leaf_vector":"1"}},{"base_weights":[4.9859134E-4,-5.374587E-1,1.6072302E-1,-6.996705E-1,8.7480893E-4,6.9699146E-2,-8.7759015E-4,5.1221037E-3,-8.182454E-2,-7.825278E-3,6.78301E-2],"categories":[],"categories_nodes":[],"categories_segments":[],"categories_sizes":[],"default_left":[0,0,1,0,0,0,0,0,0,0,0],"id":20,"left_children":[1,3,5,7,-1,-1,9,-1,-1,-1,-1],"loss_changes":[2.4473238E0,5.87299E-1,2.5124416E0,1.3102505E0,0E0,0E0,1.6314324E0,0E0,0E0,0E0,0E0],"parents":[2147483647,0,0,1,1,2,2,3,3,6,6],"right_children":[2,4,6,8,-1,-1,10,-1,-1,-1,-1],"split_conditions":[8.7E-1,2.825883E4,2.35E1,2.79E1,8.7480893E-4,6.9699146E-2,9.3E1,5.1221037E-3,-8.182454E-2,-7.825278E-3,6.78301E-2],"split_indices":[3,4,0,0,0,0,1,0,0,0,0],"split_type":[0,0,0,0,0,0,0,0,0,0,0],"sum_hessian":[2.6391058E1,5.516125E0,2.0874931E1,4.0440607E0,1.4720644E0,3.0543642E0,1.7820568E1,1.4407852E0,2.6032758E0,1.6787928E1,1.0326395E0],"tree_param":{"num_deleted":"0","num_feature":"5","num_nodes":"11","size_leaf_vector":"1"}},{"base_weights":[2.4309645E-3,-3.125524E-1,2.571921E-1,6.483369E-2,-4.8839268E-1,3.921266E-1,-5.2642003E-2,-1.0939928E-2,-7.336135E-2,4.6256892E-2,-1.0649173E-3],"categories":[],"categories_nodes":[],"categories_segments":[],"categories_sizes":[],"default_left":[0,0,1,0,0,0,0,0,0,0,0],"id":21,"left_children":[1,3,5,-1,7,9,-1,-1,-1,-1,-1],"loss_changes":[2.2629666E0,2.886486E0,2.1827426E0,0E0,1.6123829E0,1.0797403E0,0E0,0E0,0E0,0E0,0E0],"parents":[2147483647,0,0,1,1,2,2,4,4,5,5],"right_children":[2,4,6,-1,8,10,-1,-1,-1,-1,-1],"split_conditions":[1.44E0,2.2E1,2.41E0,6.483369E-2,5.43E1,6.6E1,-5.2642003E-2,-1.0939928E-2,-7.336135E-2,4.6256892E-2,-1.0649173E-3],"split_indices":[3,2,3,0,0,2,0,0,0,0,0],"split_type":[0,0,0,0,0,0,0,0,0,0,0],"sum_hessian":[2.6198786E1,1.1613348E1,1.4585438E1,1.0836916E0,1.0529656E1,1.3209457E1,1.3759804E0,6.5088415E0,4.020815E0,8.7618685E0,4.447589E0],"tree_param":{"num_deleted":"0","num_feature":"5","num_nodes":"11","size_leaf_vector":"1"}},{"base_weights":[1.1832494E-3,-1.2658706E-1,6.440076E-1,3.230611E-2,-6.4169014E-1,7.7232614E-2,-7.160528E-3,-1.0333997E-2,5.7293538E-2,1.1498455E-2,-7.154197E-2],"categories":[],"categories_nodes":[],"categories_segments":[],"categories_sizes":[],"default_left":[0,0,1,0,0,0,0,0,0,0,0],"id":22,"left_children":[1,3,5,7,9,-1,-1,-1,-1,-1,-1],"loss_changes":[2.292284E0,1.9268765E0,1.1772884E0,2.1631992E0,1.2272589E0,0E0,0E0,0E0,0E0,0E0,0E0],"parents":[2147483647,0,0,1,1,2,2,3,3,4,4],"right_children":[2,4,6,8,10,-1,-1,-1,-1,-1,-1],"split_conditions":[8.108982E4,6.99E1,6.3E1,5.93E1,2.2E1,7.7232614E-2,-7.160528E-3,-1.0333997E-2,5.7293538E-2,1.1498455E-2,-7.154197E-2],"split_indices":[4,0,0,0,2,0,0,0,0,0,0],"split_type":[0,0,0,0,0,0,0,0,0,0,0],"sum_hessian":[2.5916553E1,2.2289316E1,3.6272361E0,1.7750978E1,4.538339E0,2.3023064E0,1.3249297E0,1.5016282E1,2.7346954E0,1.2092117E0,3.3291276E0],"tree_param":{"num_deleted":"0","num_feature":"5","num_nodes":"11","size_leaf_vector":"1"}},{"base_weights":[3.244754E-3,-1.1774102E-1,6.198929E-1,5.391337E-1,-2.2466162E-1,7.49091E-2,-6.8411804E-3,6.6235703E-3,6.2090106E-2,-3.3067983E-2,8.2512805E-3],"categories":[],"categories_nodes":[],"categories_segments":[],"categories_sizes":[],"default_left":[0,0,1,0,0,0,0,0,0,0,0],"id":23,"left_children":[1,3,5,7,9,-1,-1,-1,-1,-1,-1],"loss_changes":[2.0658617E0,1.7485162E0,1.0937892E0,3.1834853E-1,1.3188618E0,0E0,0E0,0E0,0E0,0E0,0E0],"parents":[2147483647,0,0,1,1,2,2,3,3,4,4],"right_children":[2,4,6,8,10,-1,-1,-1,-1,-1,-1],"split_conditions":[8.108982E4,2.19E1,6.3E1,1.76E1,7.1E1,7.49091E-2,-6.8411804E-3,6.6235703E-3,6.2090106E-2,-3.3067983E-2,8.2512805E-3],"split_indices":[4,0,0,0,1,0,0,0,0,0,0],"split_type":[0,0,0,0,0,0,0,0,0,0,0],"sum_hessian":[2.5712116E1,2.217121E1,3.540907E0,2.5377815E0,1.9633427E1,2.218294E0,1.3226132E0,1.3286896E0,1.2090918E0,1.229517E1,7.338258E0],"tree_param":{"num_deleted":"0","num_feature":"5","num_nodes":"11","size_leaf_vector":"1"}},{"base_weights":[7.3347916E-3,-4.8199236E-1,1.5084371E-1,-6.355502E-1,1.8315087E-3,6.4959556E-2,3.2148731E-3,5.881679E-3,-7.6552674E-2,-3.4066778E-2,1.3988111E-2],"categories":[],"categories_nodes":[],"categories_segments":[],"categories_sizes":[],"default_left":[0,0,1,0,0,0,0,0,0,0,0],"id":24,"left_children":[1,3,5,7,-1,-1,9,-1,-1,-1,-1],"loss_changes":[1.9335083E0,4.9891174E-1,2.0716002E0,1.1698613E0,0E0,0E0,1.4276801E0,0E0,0E0,0E0,0E0],"parents":[2147483647,0,0,1,1,2,2,3,3,6,6],"right_children":[2,4,6,8,-1,-1,10,-1,-1,-1,-1],"split_conditions":[8.7E-1,2.825883E4,2.35E1,2.79E1,1.8315087E-3,6.4959556E-2,-3.266929E4,5.881679E-3,-7.6552674E-2,-3.4066778E-2,1.3988111E-2],"split_indices":[3,4,0,0,0,0,4,0,0,0,0],"split_type":[0,0,0,0,0,0,0,0,0,0,0],"sum_hessian":[2.5498552E1,5.247467E0,2.0251085E1,3.8252447E0,1.4222224E0,2.8750458E0,1.737604E1,1.4334906E0,2.391754E0,4.5417476E0,1.2834292E1],"tree_param":{"num_deleted":"0","num_feature":"5","num_nodes":"11","size_leaf_vector":"1"}},{"base_weights":[5.8412785E-3,-1.068115E-1,5.857128E-1,4.004474E-2,-5.94162E-1,7.218944E-2,-7.1599227E-3,5.7100624E-2,-1.0489001E-2,1.16003165E-2,-6.7450084E-2],"categories":[],"categories_nodes":[],"categories_segments":[],"categories_sizes":[],"default_left":[0,0,1,0,0,0,0,0,0,0,0],"id":25,"left_children":[1,3,5,7,9,-1,-1,-1,-1,-1,-1],"loss_changes":[1.7807002E0,1.6605389E0,1.0285215E0,2.2280273E0,1.1083896E0,0E0,0E0,0E0,0E0,0E0,0E0],"parents":[2147483647,0,0,1,1,2,2,3,3,4,4],"right_children":[2,4,6,8,10,-1,-1,-1,-1,-1,-1],"split_conditions":[8.108982E4,6.99E1,6.3E1,-5.952618E4,2.2E1,7.218944E-2,-7.1599227E-3,5.7100624E-2,-1.0489001E-2,1.16003165E-2,-6.7450084E-2],"split_indices":[4,0,0,4,2,0,0,0,0,0,0],"split_type":[0,0,0,0,0,0,0,0,0,0,0],"sum_hessian":[2.5301752E1,2.1869017E1,3.4327354E0,1.751035E1,4.358667E0,2.10781E0,1.3249253E0,2.9050884E0,1.4605261E1,1.2033958E0,3.155271E0],"tree_param":{"num_deleted":"0","num_feature":"5","num_nodes":"11","size_leaf_vector":"1"}},{"base_weights":[7.52709E-3,-4.572837E-1,1.4258239E-1,-6.0634565E-1,1.9203825E-3,6.1966557E-2,4.089269E-3,5.5708885E-3,-7.393857E-2,-3.252195E-2,1.3455239E-2],"categories":[],"categories_nodes":[],"categories_segments":[],"categories_sizes":[],"default_left":[0,0,1,0,0,0,0,0,0,0,0],"id":26,"left_children":[1,3,5,7,-1,-1,9,-1,-1,-1,-1],"loss_changes":[1.7058251E0,4.5374215E-1,1.8360639E0,1.0769457E0,0E0,0E0,1.2975214E0,0E0,0E0,0E0,0E0],"parents":[2147483647,0,0,1,1,2,2,3,3,6,6],"right_children":[2,4,6,8,-1,-1,10,-1,-1,-1,-1],"split_conditions":[8.7E-1,2.825883E4,2.35E1,2.79E1,1.9203825E-3,6.1966557E-2,-3.266929E4,5.5708885E-3,-7.393857E-2,-3.252195E-2,1.3455239E-2],"split_indices":[3,4,0,0,0,0,4,0,0,0,0],"split_type":[0,0,0,0,0,0,0,0,0,0,0],"sum_hessian":[2.5134933E1,5.1217723E0,2.0013163E1,3.7122092E0,1.4095631E0,2.771728E0,1.7241434E1,1.4371237E0,2.2750857E0,4.501219E0,1.2740215E1],"tree_param":{"num_deleted":"0","num_feature":"5","num_nodes":"11","size_leaf_vector":"1"}},{"base_weights":[6.0234196E-3,-9.911267E-2,5.538648E-1,-2.9511788E-1,2.2824861E-1,6.966268E-2,-7.4406886E-3,-7.476041E-3,-8.049557E-2,6.764234E-2,-1.4308308E-2],"categories":[],"categories_nodes":[],"categories_segments":[],"categories_sizes":[],"default_left":[0,0,1,0,0,0,0,0,0,0,0],"id":27,"left_children":[1,3,5,7,9,-1,-1,-1,-1,-1,-1],"loss_changes":[1.5491616E0,1.5183889E0,9.684398E-1,1.9969146E0,2.4212098E0,0E0,0E0,0E0,0E0,0E0,0E0],"parents":[2147483647,0,0,1,1,2,2,3,3,4,4],"right_children":[2,4,6,8,10,-1,-1,-1,-1,-1,-1],"split_conditions":[8.108982E4,7.1E1,6.3E1,6.567918E4,8.1E1,6.966268E-2,-7.4406886E-3,-7.476041E-3,-8.049557E-2,6.764234E-2,-1.4308308E-2],"split_indices":[4,1,0,4,1,0,0,0,0,0,0],"split_type":[0,0,0,0,0,0,0,0,0,0,0],"sum_hessian":[2.4943075E1,2.1614187E1,3.328888E0,1.3581099E1,8.03309E0,2.001945E0,1.3269429E0,1.1461844E1,2.1192539E0,2.7644577E0,5.268632E0],"tree_param":{"num_deleted":"0","num_feature":"5","num_nodes":"11","size_leaf_vector":"1"}},{"base_weights":[6.750021E-3,-2.6124355E-1,2.1788257E-1,6.133674E-2,-4.3048677E-1,3.5209793E-1,-5.25496E-2,-5.364871E-2,3.74889E-3,-2.5282241E-2,3.5838805E-2],"categories":[],"categories_nodes":[],"categories_segments":[],"categories_sizes":[],"default_left":[0,0,1,0,0,0,0,0,0,0,0],"id":28,"left_children":[1,3,5,-1,7,9,-1,-1,-1,-1,-1],"loss_changes":[1.5120095E0,2.3806863E0,1.9840732E0,0E0,1.2648842E0,1.0125027E0,0E0,0E0,0E0,0E0,0E0],"parents":[2147483647,0,0,1,1,2,2,4,4,5,5],"right_children":[2,4,6,-1,8,10,-1,-1,-1,-1,-1],"split_conditions":[1.44E0,2.2E1,2.41E0,6.133674E-2,7.1E1,1.3E1,-5.25496E-2,-5.364871E-2,3.74889E-3,-2.5282241E-2,3.5838805E-2],"split_indices":[3,2,3,0,1,2,0,0,0,0,0],"split_type":[0,0,0,0,0,0,0,0,0,0,0],"sum_hessian":[2.4716389E1,1.0786979E1,1.392941E1,1.025861E0,9.761117E0,1.2594495E1,1.3349147E0,6.2249117E0,3.5362053E0,1.2925287E0,1.1301967E1],"tree_param":{"num_deleted":"0","num_feature":"5","num_nodes":"11","size_leaf_vector":"1"}},{"base_weights":[5.001323E-3,1.9019143E-1,-2.9063603E-1,3.8287076E-1,-3.5140005E-1,-4.449279E-1,2.5369465E-2,7.036803E-3,6.9497086E-2,3.1326454E-2,-5.6755595E-2,4.0496286E-2,-5.1280003E-2],"categories":[],"categories_nodes":[],"categories_segments":[],"categories_sizes":[],"default_left":[0,1,0,0,0,0,0,0,0,0,0,0,0],"id":29,"left_children":[1,3,5,7,9,11,-1,-1,-1,-1,-1,-1,-1],"loss_changes":[1.451449E0,1.833827E0,1.0991902E0,1.7130809E0,1.5532358E0,1.9217238E0,0E0,0E0,0E0,0E0,0E0,0E0,0E0],"parents":[2147483647,0,0,1,1,2,2,3,3,4,4,5,5],"right_children":[2,4,6,8,10,12,-1,-1,-1,-1,-1,-1,-1],"split_conditions":[6.6E1,6.99E1,8.4E1,5.24E1,3.8E1,-5.952618E4,2.5369465E-2,7.036803E-3,6.9497086E-2,3.1326454E-2,-5.6755595E-2,4.0496286E-2,-5.1280003E-2],"split_indices":[2,0,1,0,1,4,0,0,0,0,0,0,0],"split_type":[0,0,0,0,0,0,0,0,0,0,0,0,0],"sum_hessian":[2.4501282E1,1.5283943E1,9.217338E0,1.1489459E1,3.7944844E0,7.564769E0,1.6525686E0,7.884529E0,3.60493E0,1.2034779E0,2.5910068E0,1.0225813E0,6.542187E0],"tree_param":{"num_deleted":"0","num_feature":"5","num_nodes":"13","size_leaf_vector":"1"}},{"base_weights":[7.1975724E-3,-9.479027E-2,5.4504704E-1,3.5187714E-2,-5.3452986E-1,6.763182E-2,-5.782573E-3,5.3135857E-2,-1.0161835E-2,1.2261549E-2,-6.2657095E-2],"categories":[],"categories_nodes":[],"categories_segments":[],"categories_sizes":[],"default_left":[0,0,1,0,0,0,0,0,0,0,0],"id":30,"left_children":[1,3,5,7,9,-1,-1,-1,-1,-1,-1],"loss_changes":[1.4407855E0,1.2842083E0,8.370124E-1,1.923653E0,9.9454355E-1,0E0,0E0,0E0,0E0,0E0,0E0],"parents":[2147483647,0,0,1,1,2,2,3,3,4,4],"right_children":[2,4,6,8,10,-1,-1,-1,-1,-1,-1],"split_conditions":[8.108982E4,6.99E1,6.3E1,-5.952618E4,2.2E1,6.763182E-2,-5.782573E-3,5.3135857E-2,-1.0161835E-2,1.2261549E-2,-6.2657095E-2],"split_indices":[4,0,0,4,2,0,0,0,0,0,0],"split_type":[0,0,0,0,0,0,0,0,0,0,0],"sum_hessian":[2.4323906E1,2.1139215E1,3.1846902E0,1.702651E1,4.112706E0,1.8938346E0,1.2908555E0,2.8562098E0,1.41703005E1,1.1940186E0,2.9186876E0],"tree_param":{"num_deleted":"0","num_feature":"5","num_nodes":"11","size_leaf_vector":"1"}},{"base_weights":[8.814742E-3,-4.1024184E-1,1.292945E-1,-5.6918514E-1,6.0959384E-3,5.8123156E-2,3.9307075E-4,5.260645E-3,-7.0559174E-2,-3.1122059E-2,1.2715118E-2],"categories":[],"categories_nodes":[],"categories_segments":[],"categories_sizes":[],"default_left":[0,0,1,0,0,0,0,0,0,0,0],"id":31,"left_children":[1,3,5,7,-1,-1,9,-1,-1,-1,-1],"loss_changes":[1.323649E0,4.9640012E-1,1.563079E0,9.585961E-1,0E0,0E0,1.154823E0,0E0,0E0,0E0,0E0],"parents":[2147483647,0,0,1,1,2,2,3,3,6,6],"right_children":[2,4,6,8,-1,-1,10,-1,-1,-1,-1],"split_conditions":[8.7E-1,2.825883E4,2.35E1,2.79E1,6.0959384E-3,5.8123156E-2,-3.266929E4,5.260645E-3,-7.0559174E-2,-3.1122059E-2,1.2715118E-2],"split_indices":[3,4,0,0,0,0,4,0,0,0,0],"split_type":[0,0,0,0,0,0,0,0,0,0,0],"sum_hessian":[2.4166597E1,4.8594017E0,1.9307198E1,3.5344343E0,1.3249674E0,2.6042778E0,1.6702919E1,1.4272085E0,2.1072257E0,4.4121447E0,1.2290774E1],"tree_param":{"num_deleted":"0","num_feature":"5","num_nodes":"11","size_leaf_vector":"1"}},{"base_weights":[7.343494E-3,-8.808081E-2,5.162187E-1,-2.7005675E-1,2.1222326E-1,6.537079E-2,-6.089434E-3,-6.3797417E-3,-7.661102E-2,6.389764E-2,-1.3386944E-2],"categories":[],"categories_nodes":[],"categories_segments":[],"categories_sizes":[],"default_left":[0,0,1,0,0,0,0,0,0,0,0],"id":32,"left_children":[1,3,5,7,9,-1,-1,-1,-1,-1,-1],"loss_changes":[1.258803E0,1.2538534E0,7.91463E-1,1.7652329E0,2.097443E0,0E0,0E0,0E0,0E0,0E0,0E0],"parents":[2147483647,0,0,1,1,2,2,3,3,4,4],"right_children":[2,4,6,8,10,-1,-1,-1,-1,-1,-1],"split_conditions":[8.108982E4,7.1E1,6.3E1,6.567918E4,8.1E1,6.537079E-2,-6.089434E-3,-6.3797417E-3,-7.661102E-2,6.389764E-2,-1.3386944E-2],"split_indices":[4,1,0,4,1,0,0,0,0,0,0],"split_type":[0,0,0,0,0,0,0,0,0,0,0],"sum_hessian":[2.3986767E1,2.0895376E1,3.091391E0,1.3073762E1,7.821615E0,1.7983106E0,1.2930804E0,1.1113678E1,1.9600832E0,2.6391935E0,5.1824217E0],"tree_param":{"num_deleted":"0","num_feature":"5","num_nodes":"11","size_leaf_vector":"1"}},{"base_weights":[7.971288E-3,1.7702943E-1,-2.6031414E-1,5.245119E-3,6.162198E-2,-4.1479614E-1,2.5983814E-2,4.6160825E-2,-1.8616224E-2,3.7716117E-2,-4.810126E-2],"categories":[],"categories_nodes":[],"categories_segments":[],"categories_sizes":[],"default_left":[0,0,0,0,0,0,0,0,0,0,0],"id":33,"left_children":[1,3,5,7,-1,9,-1,-1,-1,-1,-1],"loss_changes":[1.1697004E0,1.6053541E0,1.036909E0,1.9373523E0,0E0,1.6609719E0,0E0,0E0,0E0,0E0,0E0],"parents":[2147483647,0,0,1,1,2,2,3,3,5,5],"right_children":[2,4,6,8,-1,10,-1,-1,-1,-1,-1],"split_conditions":[6.6E1,6.876845E4,8.4E1,2.79E1,6.162198E-2,-5.952618E4,2.5983814E-2,4.6160825E-2,-1.8616224E-2,3.7716117E-2,-4.810126E-2],"split_indices":[2,4,1,0,0,4,0,0,0,0,0],"split_type":[0,0,0,0,0,0,0,0,0,0,0],"sum_hessian":[2.3773376E1,1.4792274E1,8.981101E0,1.2253039E1,2.5392354E0,7.3354645E0,1.6456368E0,3.1820192E0,9.07102E0,1.0094547E0,6.3260098E0],"tree_param":{"num_deleted":"0","num_feature":"5","num_nodes":"11","size_leaf_vector":"1"}},{"base_weights":[1.16645945E-2,-2.365176E-1,2.0353867E-1,3.9354272E-2,-3.7365726E-1,3.3372843E-1,-5.0949678E-2,-4.931451E-3,-6.2217098E-2,-2.2659875E-2,3.3962835E-2],"categories":[],"categories_nodes":[],"categories_segments":[],"categories_sizes":[],"default_left":[0,0,1,0,0,0,0,0,0,0,0],"id":34,"left_children":[1,3,5,-1,7,9,-1,-1,-1,-1,-1],"loss_changes":[1.2199556E0,1.3018851E0,1.7898047E0,0E0,1.2111522E0,8.563304E-1,0E0,0E0,0E0,0E0,0E0],"parents":[2147483647,0,0,1,1,2,2,4,4,5,5],"right_children":[2,4,6,-1,8,10,-1,-1,-1,-1,-1],"split_conditions":[1.44E0,2.3E1,2.41E0,3.9354272E-2,5.43E1,1.3E1,-5.0949678E-2,-4.931451E-3,-6.2217098E-2,-2.2659875E-2,3.3962835E-2],"split_indices":[3,2,3,0,0,2,0,0,0,0,0],"split_type":[0,0,0,0,0,0,0,0,0,0,0],"sum_hessian":[2.3607763E1,1.0192047E1,1.3415716E1,1.2049011E0,8.987146E0,1.213825E1,1.2774658E0,5.7215223E0,3.2656236E0,1.2854166E0,1.0852834E1],"tree_param":{"num_deleted":"0","num_feature":"5","num_nodes":"11","size_leaf_vector":"1"}},{"base_weights":[7.955496E-3,-4.9534872E-2,8.180695E-2,2.1773612E-1,-3.5490912E-1,-9.906262E-4,4.502911E-2,3.196097E-2,-5.0283544E-2],"categories":[],"categories_nodes":[],"categories_segments":[],"categories_sizes":[],"default_left":[0,0,1,0,0,0,0,0,0],"id":35,"left_children":[1,-1,3,5,7,-1,-1,-1,-1],"loss_changes":[1.1812665E0,0E0,1.4261532E0,1.4324704E0,1.4430605E0,0E0,0E0,0E0,0E0],"parents":[2147483647,0,0,2,2,3,3,4,4],"right_children":[2,-1,4,6,8,-1,-1,-1,-1],"split_conditions":[5.1E-1,-4.9534872E-2,6.99E1,7.1E1,3.8E1,-9.906262E-4,4.502911E-2,3.196097E-2,-5.0283544E-2],"split_indices":[3,0,0,1,1,0,0,0,0],"split_type":[0,0,0,0,0,0,0,0,0],"sum_hessian":[2.3411211E1,1.6884873E0,2.1722723E1,1.6948788E1,4.773936E0,1.0747114E1,6.2016735E0,1.1482247E0,3.6257112E0],"tree_param":{"num_deleted":"0","num_feature":"5","num_nodes":"9","size_leaf_vector":"1"}},{"base_weights":[6.3759964E-3,-8.2869254E-2,4.9351016E-1,9.860368E-3,-6.116171E-1,6.2538855E-2,-5.3197383E-3,-3.732649E-2,1.1791967E-2,-6.341671E-2,-1.1315831E-2],"categories":[],"categories_nodes":[],"categories_segments":[],"categories_sizes":[],"default_left":[0,0,1,0,0,0,0,0,0,0,0],"id":36,"left_children":[1,3,5,7,9,-1,-1,-1,-1,-1,-1],"loss_changes":[1.0945147E0,1.0522963E0,6.808815E-1,1.3229544E0,1.603185E-1,0E0,0E0,0E0,0E0,0E0,0E0],"parents":[2147483647,0,0,1,1,2,2,3,3,4,4],"right_children":[2,4,6,8,10,-1,-1,-1,-1,-1,-1],"split_conditions":[8.108982E4,6.567918E4,6.3E1,7.6E-1,5.5E1,6.2538855E-2,-5.3197383E-3,-3.732649E-2,1.1791967E-2,-6.341671E-2,-1.1315831E-2],"split_indices":[4,4,0,3,1,0,0,0,0,0,0],"split_type":[0,0,0,0,0,0,0,0,0,0,0],"sum_hessian":[2.323536E1,2.0339037E1,2.896322E0,1.8139208E1,2.1998284E0,1.650764E0,1.245558E0,3.52749E0,1.4611718E1,1.0928824E0,1.1069459E0],"tree_param":{"num_deleted":"0","num_feature":"5","num_nodes":"11","size_leaf_vector":"1"}},{"base_weights":[4.1305176E-3,-8.1327304E-2,4.7711894E-1,7.7214497E-3,-5.920564E-1,6.092826E-2,-5.0874976E-3,-1.6687471E-2,2.309307E-2,-6.160108E-2,-1.0860664E-2],"categories":[],"categories_nodes":[],"categories_segments":[],"categories_sizes":[],"default_left":[0,0,1,0,0,0,0,0,0,0,0],"id":37,"left_children":[1,3,5,7,9,-1,-1,-1,-1,-1,-1],"loss_changes":[1.0124655E0,9.7131217E-1,6.3785857E-1,1.2202078E0,1.5277684E-1,0E0,0E0,0E0,0E0,0E0,0E0],"parents":[2147483647,0,0,1,1,2,2,3,3,4,4],"right_children":[2,4,6,8,10,-1,-1,-1,-1,-1,-1],"split_conditions":[8.108982E4,6.567918E4,6.3E1,-2.8601E2,5.5E1,6.092826E-2,-5.0874976E-3,-1.6687471E-2,2.309307E-2,-6.160108E-2,-1.0860664E-2],"split_indices":[4,4,0,4,1,0,0,0,0,0,0],"split_type":[0,0,0,0,0,0,0,0,0,0,0],"sum_hessian":[2.30883E1,2.0256489E1,2.831812E0,1.8087673E1,2.1688156E0,1.5878707E0,1.2439413E0,1.0364735E1,7.722939E0,1.0656766E0,1.1031389E0],"tree_param":{"num_deleted":"0","num_feature":"5","num_nodes":"11","size_leaf_vector":"1"}},{"base_weights":[3.4422292E-3,-4.625066E-2,7.188182E-2,1.970313E-1,-3.28586E-1,6.003825E-2,3.6800844E-3,3.1164436E-2,-4.768927E-2],"categories":[],"categories_nodes":[],"categories_segments":[],"categories_sizes":[],"default_left":[0,0,1,1,0,0,0,0,0],"id":38,"left_children":[1,-1,3,5,7,-1,-1,-1,-1],"loss_changes":[9.9472845E-1,0E0,1.1831509E0,1.4388872E0,1.3250511E0,0E0,0E0,0E0,0E0],"parents":[2147483647,0,0,2,2,3,3,4,4],"right_children":[2,-1,4,6,8,-1,-1,-1,-1],"split_conditions":[5.1E-1,-4.625066E-2,6.99E1,-5.908127E4,3.8E1,6.003825E-2,3.6800844E-3,3.1164436E-2,-4.768927E-2],"split_indices":[3,0,0,4,1,0,0,0,0],"split_type":[0,0,0,0,0,0,0,0,0],"sum_hessian":[2.2947348E1,1.6319829E0,2.1315365E1,1.662722E1,4.6881456E0,2.7137368E0,1.3913483E1,1.148652E0,3.5394936E0],"tree_param":{"num_deleted":"0","num_feature":"5","num_nodes":"9","size_leaf_vector":"1"}},{"base_weights":[3.1448868E-3,1.6016236E-1,-2.4396676E-1,3.1941207E-3,5.8003835E-2,-3.8975835E-1,2.3574246E-2,-1.9559454E-2,4.1210145E-2,2.117158E-2,-4.8181485E-2],"categories":[],"categories_nodes":[],"categories_segments":[],"categories_sizes":[],"default_left":[0,0,0,0,0,0,0,0,0,0,0],"id":39,"left_children":[1,3,5,7,-1,9,-1,-1,-1,-1,-1],"loss_changes":[9.643999E-1,1.3442128E0,8.7361497E-1,1.7601594E0,0E0,1.2767245E0,0E0,0E0,0E0,0E0,0E0],"parents":[2147483647,0,0,1,1,2,2,3,3,5,5],"right_children":[2,4,6,8,-1,10,-1,-1,-1,-1,-1],"split_conditions":[6.6E1,6.876845E4,8.4E1,1.96E0,5.8003835E-2,-2.727494E4,2.3574246E-2,-1.9559454E-2,4.1210145E-2,2.117158E-2,-4.8181485E-2],"split_indices":[2,4,1,3,0,4,0,0,0,0,0],"split_type":[0,0,0,0,0,0,0,0,0,0,0],"sum_hessian":[2.2848074E1,1.4185997E1,8.662077E0,1.1888203E1,2.2977939E0,7.0345025E0,1.6275748E0,8.363918E0,3.524285E0,1.6642603E0,5.370242E0],"tree_param":{"num_deleted":"0","num_feature":"5","num_nodes":"11","size_leaf_vector":"1"}},{"base_weights":[6.1427983E-3,6.9231376E-2,-5.042215E-2,-1.3364892E-1,4.4748548E-1,7.650085E-3,-3.8736463E-2,4.5433E-2,-1.1292605E-2],"categories":[],"categories_nodes":[],"categories_segments":[],"categories_sizes":[],"default_left":[1,0,0,0,1,0,0,0,0],"id":40,"left_children":[1,3,-1,5,7,-1,-1,-1,-1],"loss_changes":[9.951661E-1,1.7835888E0,0E0,1.2833099E0,6.523701E-1,0E0,0E0,0E0,0E0],"parents":[2147483647,0,0,1,1,3,3,4,4],"right_children":[2,4,-1,6,8,-1,-1,-1,-1],"split_conditions":[2.41E0,1.69E0,-5.042215E-2,5.59E1,7.54E1,7.650085E-3,-3.8736463E-2,4.5433E-2,-1.1292605E-2],"split_indices":[3,3,0,0,0,0,0,0,0],"split_type":[0,0,0,0,0,0,0,0,0],"sum_hessian":[2.2698925E1,2.1462551E1,1.2363752E0,1.4390652E1,7.0718985E0,9.1400175E0,5.250635E0,5.900058E0,1.1718408E0],"tree_param":{"num_deleted":"0","num_feature":"5","num_nodes":"9","size_leaf_vector":"1"}},{"base_weights":[3.6897743E-3,6.429848E-2,-4.849428E-2,-1.2562315E-1,4.2064995E-1,7.098236E-3,-3.655298E-2,4.2877845E-2,-1.08099E-2],"categories":[],"categories_nodes":[],"categories_segments":[],"categories_sizes":[],"default_left":[1,0,0,0,1,0,0,0,0],"id":41,"left_children":[1,3,-1,5,7,-1,-1,-1,-1],"loss_changes":[9.087494E-1,1.5626036E0,0E0,1.1285946E0,5.842507E-1,0E0,0E0,0E0,0E0],"parents":[2147483647,0,0,1,1,3,3,4,4],"right_children":[2,4,-1,6,8,-1,-1,-1,-1],"split_conditions":[2.41E0,1.69E0,-4.849428E-2,5.59E1,7.54E1,7.098236E-3,-3.655298E-2,4.2877845E-2,-1.08099E-2],"split_indices":[3,3,0,0,0,0,0,0,0],"split_type":[0,0,0,0,0,0,0,0,0],"sum_hessian":[2.25307E1,2.1307709E1,1.2229903E0,1.432207E1,6.985639E0,9.1402855E0,5.181785E0,5.8147125E0,1.1709263E0],"tree_param":{"num_deleted":"0","num_feature":"5","num_nodes":"9","size_leaf_vector":"1"}},{"base_weights":[1.4646396E-3,-8.0019355E-2,4.6403682E-1,-5.0223287E-2,-6.792651E-5,5.845385E-2,-3.8862468E-3,2.618175E-2,-1.9370362E-2],"categories":[],"categories_nodes":[],"categories_segments":[],"categories_sizes":[],"default_left":[0,0,1,0,0,0,0,0,0],"id":42,"left_children":[1,3,5,-1,7,-1,-1,-1,-1],"loss_changes":[9.1792756E-1,9.074426E-1,5.33966E-1,0E0,1.5912358E0,0E0,0E0,0E0,0E0],"parents":[2147483647,0,0,1,1,2,2,4,4],"right_children":[2,4,6,-1,8,-1,-1,-1,-1],"split_conditions":[8.108982E4,2.6E1,6.3E1,-5.0223287E-2,5.1E1,5.845385E-2,-3.8862468E-3,2.618175E-2,-1.9370362E-2],"split_indices":[4,1,0,0,2,0,0,0,0],"split_type":[0,0,0,0,0,0,0,0,0],"sum_hessian":[2.2368095E1,1.9721148E1,2.6469488E0,1.639089E0,1.8082058E1,1.4614123E0,1.1855366E0,7.5373216E0,1.0544736E1],"tree_param":{"num_deleted":"0","num_feature":"5","num_nodes":"9","size_leaf_vector":"1"}},{"base_weights":[1.8815203E-3,-6.016836E-2,4.7600754E-2,3.6057833E-1,-1.5301159E-1,7.39373E-2,-3.9034594E-2,-6.2546134E-2,4.437146E-4],"categories":[],"categories_nodes":[],"categories_segments":[],"categories_sizes":[],"default_left":[0,0,0,0,0,0,0,0,0],"id":43,"left_children":[1,3,-1,5,7,-1,-1,-1,-1],"loss_changes":[8.90637E-1,9.1204685E-1,0E0,2.4898713E0,1.8660203E0,0E0,0E0,0E0,0E0],"parents":[2147483647,0,0,1,1,3,3,4,4],"right_children":[2,4,-1,6,8,-1,-1,-1,-1],"split_conditions":[9.3E1,-5.952618E4,4.7600754E-2,5.86E1,-2.970684E4,7.39373E-2,-3.9034594E-2,-6.2546134E-2,4.437146E-4],"split_indices":[1,4,0,0,4,0,0,0,0],"split_type":[0,0,0,0,0,0,0,0,0],"sum_hessian":[2.2227024E1,2.0935429E1,1.2915953E0,3.2632604E0,1.7672169E1,1.9071689E0,1.3560915E0,2.76717E0,1.4904999E1],"tree_param":{"num_deleted":"0","num_feature":"5","num_nodes":"9","size_leaf_vector":"1"}},{"base_weights":[2.6169E-3,-4.3479E-2,6.750858E-2,1.3517296E-1,-4.7157597E-2,-8.520323E-3,2.5993343E-2],"categories":[],"categories_nodes":[],"categories_segments":[],"categories_sizes":[],"default_left":[0,0,1,0,0,0,0],"id":44,"left_children":[1,-1,3,5,-1,-1,-1],"loss_changes":[8.569311E-1,0E0,1.0388788E0,9.689796E-1,0E0,0E0,0E0],"parents":[2147483647,0,0,2,2,3,3],"right_children":[2,-1,4,6,-1,-1,-1],"split_conditions":[5.1E-1,-4.3479E-2,2.41E0,-5.8666E3,-4.7157597E-2,-8.520323E-3,2.5993343E-2],"split_indices":[3,0,3,4,0,0,0],"split_type":[0,0,0,0,0,0,0],"sum_hessian":[2.2146046E1,1.568747E0,2.05773E1,1.9375956E1,1.201343E0,8.714711E0,1.0661244E1],"tree_param":{"num_deleted":"0","num_feature":"5","num_nodes":"7","size_leaf_vector":"1"}},{"base_weights":[-7.769895E-4,-7.6984756E-2,4.376376E-1,9.675268E-3,-5.742852E-1,5.6433693E-2,-4.3349615E-3,-4.7810644E-2,8.200907E-3,-5.9145357E-2,-1.0034898E-2],"categories":[],"categories_nodes":[],"categories_segments":[],"categories_sizes":[],"default_left":[0,0,1,0,0,0,0,0,0,0,0],"id":45,"left_children":[1,3,5,7,9,-1,-1,-1,-1,-1,-1],"loss_changes":[8.04226E-1,8.8892967E-1,5.077195E-1,1.1008753E0,1.3381529E-1,0E0,0E0,0E0,0E0,0E0,0E0],"parents":[2147483647,0,0,1,1,2,2,3,3,4,4],"right_children":[2,4,6,8,10,-1,-1,-1,-1,-1,-1],"split_conditions":[8.108982E4,6.567918E4,6.3E1,2.6E1,5.5E1,5.6433693E-2,-4.3349615E-3,-4.7810644E-2,8.200907E-3,-5.9145357E-2,-1.0034898E-2],"split_indices":[4,4,0,1,1,0,0,0,0,0,0],"split_type":[0,0,0,0,0,0,0,0,0,0,0],"sum_hessian":[2.2062582E1,1.9497768E1,2.5648131E0,1.7439322E1,2.0584471E0,1.3794503E0,1.1853628E0,1.5913875E0,1.5847934E1,1.0319006E0,1.0265465E0],"tree_param":{"num_deleted":"0","num_feature":"5","num_nodes":"11","size_leaf_vector":"1"}},{"base_weights":[-3.185872E-3,-6.118196E-2,4.4610918E-2,3.5371354E-1,-1.5224442E-1,7.100639E-2,-3.6956236E-2,-5.8976274E-2,-3.317507E-4],"categories":[],"categories_nodes":[],"categories_segments":[],"categories_sizes":[],"default_left":[0,0,0,0,0,0,0,0,0],"id":46,"left_children":[1,3,-1,5,7,-1,-1,-1,-1],"loss_changes":[7.8065705E-1,8.7380004E-1,0E0,2.2419512E0,1.5992295E0,0E0,0E0,0E0,0E0],"parents":[2147483647,0,0,1,1,3,3,4,4],"right_children":[2,4,-1,6,8,-1,-1,-1,-1],"split_conditions":[9.3E1,-5.952618E4,4.4610918E-2,5.86E1,-2.970684E4,7.100639E-2,-3.6956236E-2,-5.8976274E-2,-3.317507E-4],"split_indices":[1,4,0,0,4,0,0,0,0],"split_type":[0,0,0,0,0,0,0,0,0],"sum_hessian":[2.1952442E1,2.0702456E1,1.2499875E0,3.2069173E0,1.7495539E1,1.8849941E0,1.321923E0,2.7309492E0,1.4764588E1],"tree_param":{"num_deleted":"0","num_feature":"5","num_nodes":"9","size_leaf_vector":"1"}},{"base_weights":[-2.095132E-3,5.4720975E-2,-4.5481823E-2,-1.2272721E-1,3.8861403E-1,6.3544577E-3,-3.4611247E-2,4.0056814E-2,-1.0755688E-2],"categories":[],"categories_nodes":[],"categories_segments":[],"categories_sizes":[],"default_left":[1,0,0,0,1,0,0,0,0],"id":47,"left_children":[1,3,-1,5,7,-1,-1,-1,-1],"loss_changes":[7.671337E-1,1.3332595E0,0E0,9.69632E-1,5.2287865E-1,0E0,0E0,0E0,0E0],"parents":[2147483647,0,0,1,1,3,3,4,4],"right_children":[2,4,-1,6,8,-1,-1,-1,-1],"split_conditions":[2.41E0,1.69E0,-4.5481823E-2,5.59E1,7.54E1,6.3544577E-3,-3.4611247E-2,4.0056814E-2,-1.0755688E-2],"split_indices":[3,3,0,0,0,0,0,0,0],"split_type":[0,0,0,0,0,0,0,0,0],"sum_hessian":[2.1870506E1,2.0697786E1,1.1727197E0,1.3928102E1,6.7696843E0,8.879599E0,5.0485034E0,5.6101184E0,1.1595657E0],"tree_param":{"num_deleted":"0","num_feature":"5","num_nodes":"9","size_leaf_vector":"1"}},{"base_weights":[-3.8903789E-3,-7.8095175E-2,4.2862085E-1,4.8470665E-3,-5.535226E-1,5.4842215E-2,-3.4510845E-3,-4.6201352E-2,7.4860137E-3,-5.7111457E-2,-9.499047E-3],"categories":[],"categories_nodes":[],"categories_segments":[],"categories_sizes":[],"default_left":[0,0,1,0,0,0,0,0,0,0,0],"id":48,"left_children":[1,3,5,7,9,-1,-1,-1,-1,-1,-1],"loss_changes":[7.625981E-1,8.0069315E-1,4.514662E-1,9.956266E-1,1.2544376E-1,0E0,0E0,0E0,0E0,0E0,0E0],"parents":[2147483647,0,0,1,1,2,2,3,3,4,4],"right_children":[2,4,6,8,10,-1,-1,-1,-1,-1,-1],"split_conditions":[8.108982E4,6.567918E4,6.3E1,2.6E1,5.5E1,5.4842215E-2,-3.4510845E-3,-4.6201352E-2,7.4860137E-3,-5.7111457E-2,-9.499047E-3],"split_indices":[4,4,0,1,1,0,0,0,0,0,0],"split_type":[0,0,0,0,0,0,0,0,0,0,0],"sum_hessian":[2.1718128E1,1.9237106E1,2.4810212E0,1.7222334E1,2.0147734E0,1.312915E0,1.1681062E0,1.5486939E0,1.567364E1,1.0029042E0,1.0118692E0],"tree_param":{"num_deleted":"0","num_feature":"5","num_nodes":"11","size_leaf_vector":"1"}},{"base_weights":[-5.980635E-3,-4.1373413E-2,5.5511452E-2,1.17747255E-1,-4.3927643E-2,-8.281629E-3,2.3524536E-2],"categories":[],"categories_nodes":[],"categories_segments":[],"categories_sizes":[],"default_left":[0,0,1,0,0,0,0],"id":49,"left_children":[1,-1,3,5,-1,-1,-1],"loss_changes":[7.395127E-1,0E0,8.581438E-1,8.084471E-1,0E0,0E0,0E0],"parents":[2147483647,0,0,2,2,3,3],"right_children":[2,-1,4,6,-1,-1,-1],"split_conditions":[5.1E-1,-4.1373413E-2,2.41E0,-5.8666E3,-4.3927643E-2,-8.281629E-3,2.3524536E-2],"split_indices":[3,0,3,4,0,0,0],"split_type":[0,0,0,0,0,0,0],"sum_hessian":[2.1612612E1,1.5249883E0,2.0087624E1,1.8942963E1,1.144662E0,8.583525E0,1.0359438E1],"tree_param":{"num_deleted":"0","num_feature":"5","num_nodes":"7","size_leaf_vector":"1"}}]},"name":"gbtree"},"learner_model_param":{"base_score":"[5E-1]","boost_from_average":"0","num_class":"0","num_feature":"5","num_target":"1"},"objective":{"name":"binary:logistic","reg_loss_param":{"scale_pos_weight":"1"}}},"version":[3,2,0]}